5.364878353147626289e-01 -4.144990063692729487e-01 -5.435118195270906005e-01 -3.838887398513990967e-01 -4.057242684611007677e-01 4.916990526333762102e-01 1.950388854166645869e-01 1.051747604730309815e-01 -5.213548893610078228e-01 -6.008147047890838310e-01
3.031981964262230322e-01 1.132041792136683211e-01 2.661413895311918187e-01 -3.587636392372488547e-01 -5.515786679689745897e-01 4.780997397604024313e-01 -1.666124813684017325e-01 -6.254891561837024883e-01 1.540358014142236276e-01 2.750201222377846033e-02
6.177114853938059369e-01 -1.785897624283248608e-01 2.710895155259182010e-01 -1.304298355978162904e-01 3.350954712098309640e-01 4.064707544160560682e-01 -2.407220242782592556e-01 -2.105937755585605975e-01 -1.942594162459669038e-01 -7.014659659888154986e-01
1.844096309852945592e-01 -6.228912117945812899e-01 2.169314148244233520e-01 -5.036083499613625003e-01 -4.936706858891569405e-02 1.811693566372532538e-02 -3.421239002813927788e-01 -4.082117990369674154e-01 -4.859542739812905965e-01 2.741728661818990664e-01
1.258834513958168588e-01 -7.906285757424150185e-02 -4.589279118294137261e-01 -5.274289784690556759e-01 5.781487932255253287e-02 -2.584921709608274387e-01 1.299559587096218993e-01 3.023088577569328361e-01 -5.445764395168125604e-01 6.237585355646411284e-02
7.974046161216123974e-01 -3.035903281444600754e-01 1.357525265496490885e-01 -7.379463942017396028e-02 -2.614788513438416340e-01 4.574054313682650585e-01 -1.860936942544419437e-01 -5.357596160755613290e-01 -5.058353607853921519e-01 -1.933198584931396236e-01
7.916424242558984803e-01 2.818929845410390600e-01 -6.378715488135529021e-01 -3.574925093826104017e-01 1.479894034052098573e-01 4.410307392369388069e-01 -2.108311858385320814e-01 6.185716989751485068e-02 -5.486253075659563994e-01 -1.133379455572372935e-01
6.816098950507993859e-01 -5.073122711961048914e-01 -3.429482317119110224e-01 -2.612215639091117758e-01 -3.121541131505771727e-01 6.595935861951536527e-02 1.172273918680396682e-01 -6.477294632904668781e-01 -4.711802690052467324e-01 -5.455390888064101107e-01
-2.699121838809539348e-02 -1.795518390655865271e-01 2.846167338767516819e-01 -6.770799301974540774e-02 -5.079596864648774357e-01 5.978789661968537672e-01 8.412595991908120019e-02 -6.567172054547969484e-01 1.498542773765410008e-01 -6.198918018270912489e-01
7.631972251216654346e-01 -4.533199309330149251e-01 -1.894120699900216781e-02 2.703064596384461282e-01 -5.738912873733770237e-01 -1.532507152351558488e-01 -2.457386875882332233e-01 -1.874409071223140932e-01 -4.058295832541383708e-01 1.407917805572479752e-01
6.976921757814570357e-01 1.117355124684145107e-01 -3.462384929513782211e-02 -2.508516905819098142e-01 -1.924144888381132679e-01 1.750273011107265214e-02 -5.304884488568083478e-01 -4.305741170739508239e-01 -1.762322351407968890e-01 -3.408263440782513705e-03
2.459926774565557306e-01 -3.171558263596990085e-02 -5.140562360481911730e-01 -1.017792231097845307e-01 -4.046749611821217618e-01 4.706097229237000690e-01 -9.980027066349581033e-02 2.443326224693674886e-01 -2.670191861181944737e-01 -1.054261719289365379e-01
8.377253737076663098e-01 -1.425152612259861229e-01 -5.929075435979684894e-01 3.124670241392535353e-01 -5.683777657029479707e-02 6.616023995147184422e-01 -2.888217659806642801e-01 -1.566280945086621357e-01 9.646543250588179852e-02 -5.003891735283195336e-02
5.537365636939131086e-01 -6.034967366238851438e-01 -4.480944563640179013e-01 -5.594896634035061433e-01 1.275745803830032055e-01 -1.686880538574887789e-01 -3.700794125743691043e-01 -3.465328392797629165e-01 3.741528380936351428e-01 -5.840190608625698276e-01
8.970554064118576587e-01 -1.698623513227565940e-01 -1.202855864609485848e-01 -1.196767519618043424e-01 -5.676167050941500758e-01 2.404959652544040039e-01 -3.922331181384190457e-01 -1.955839887980823644e-01 -2.279729729867160659e-01 -1.841618346413997631e-01
4.188921074934702782e-01 2.417298092705103263e-01 4.472981183493165286e-02 1.746145486179107309e-01 -4.021816488197125228e-01 -1.180770001078904063e-01 -3.909771294856500545e-01 -1.393304190185872538e-01 -2.158670044546306677e-01 2.418659740536268921e-01
2.572990796977051575e-01 -3.185283231015701988e-01 -6.019389934808374587e-01 4.626682662275417857e-02 -2.299648904377490644e-01 4.615562681236177328e-02 -2.334706614044217698e-01 1.646816389101184164e-01 -2.397165435183724047e-01 -2.402225127397036586e-01
2.346704163490017370e-01 -4.356444796457559221e-01 1.416139759799560083e-01 9.199939108295586421e-02 1.793409206105028020e-01 7.508638064468495417e-03 -1.599570989010231370e-01 -5.131427812516436981e-01 -5.217629567225195997e-01 1.637212094831902720e-01
7.461641749565661730e-01 -5.849207806896152828e-01 -1.769153846469231073e-01 -6.661470237425252128e-01 -3.244328027099670497e-01 6.502162183876523116e-01 -4.704253730743327977e-01 -5.461334581322686565e-01 -1.891736350896846275e-01 1.240729884824253414e-02
5.968755081875883883e-01 -2.857039497066602221e-02 -1.904259641120363278e-01 -4.635575169819959596e-02 1.691590307905951190e-02 -1.501167620075488374e-01 -5.442609732508153497e-01 1.292125893324232444e-01 -3.219559340998242036e-01 -5.669076804065779074e-01
2.713245265466205369e-01 1.031354107698433109e-01 -3.832514599518396237e-01 -3.633661984481176832e-01 -4.250502437432225333e-01 9.801958439303239123e-02 -5.136125710858173710e-01 1.878445416884649277e-01 -2.054526695398800340e-01 1.878546566900946846e-01
1.329484797050852207e-01 3.181799889556662375e-01 -5.469923524021466088e-01 -4.754691622024955766e-01 1.814684126461616198e-01 -3.654852016462244169e-02 1.234162671706644787e-01 3.236689704246169530e-01 1.292564715058111546e-01 -1.585797734922964608e-01
9.140827599940751780e-01 -4.644434701372249785e-01 -6.526879704887655897e-01 1.533799531105485836e-01 -9.751948473666333106e-02 3.312210720958410626e-01 -1.518766344552538727e-01 -4.801406950516055594e-01 -1.801923471857567183e-01 -5.627070052376833553e-01
6.714197807384045813e-01 -5.084926336266687441e-01 -2.609302477035895795e-01 -3.333027338557052466e-01 -2.590667111983067095e-01 5.455090223126630722e-01 9.240781161244354669e-02 -5.351213063231511358e-01 5.921686223936966503e-02 -4.861800313335214452e-01
5.211534696606522354e-01 -7.204073480833203535e-02 2.342847175092273027e-01 -3.986858245994248096e-01 -3.556721545718514177e-01 -2.153532194351727436e-01 -1.417604597034260727e-01 1.623705120049465100e-01 3.310836989488853965e-01 -3.260284920633853001e-01
